{
  "format": "underhfs.checkpoint",
  "version": 1,
  "metadata": {
    "board_size": 9,
    "features": 324,
    "moves": 82,
    "training": "synthetic_strategy_supervision"
  },
  "state": {
    "trunk.0.weight": [
      [
        0.001621345584494304,
        -0.0011131756189378074,
        -0.0018800514227198769,
        -0.0022382069475407654,
        0.0013462080293556945,
        0.0013425065222899043,
        -0.0007472163393614428,
        0.0037439557820729604,
        0.0003063111010119836,
        0.002532152550653614,
        0.00032836300720983345,
        0.0002528565062383768,
        -0.0003277983803214313,
        -0.002940957996762893,
        0.000646504092003484,
        -0.003597666864412731,
        0.0011180457577793577,
        -0.0006960370619368813,
        -0.0008720226578917424,
        0.002504675725223012,
        0.0016589887567615273,
        0.021731957565727416,
        -0.0021215736964957446,
        -0.0015047449056848753,
        -0.0014103394490497245,
        0.0010585396262038803,
        0.0023891771988942133,
        0.0007698408203400605,
        0.003742782887700019,
        -0.00041632269897675587,
        0.1852661787888815,
        0.0004024535298817663,
        -0.0008165446668131347,
        -0.00043919902382355807,
        -0.0034968575633341986,
        -0.0003708277385639307,
        -0.0030670556455752534,
        0.0001369709144515165,
        0.0005019805886289374,
        -0.039912486721973,
        0.0025479853084178624,
        -0.02715622844528852,
        -0.0008841794703120277,
        -0.002583886344516981,
        -0.0002711187636546561,
        -0.00029871363749393127,
        -0.0004029230831670964,
        0.0031822000823394183,
        5.6640871610581995e-05,
        0.021782046815316845,
        0.07043043284425052,
        0.0006357097446068577,
        -7.58978066752759e-05,
        -0.001811479963872735,
        0.00011092319775503784,
        -0.003766887220376636,
        -0.0005740920837696649,
        -0.0022242435834807154,
        -0.0012215891451928015,
        0.0015788335698464465,
        0.0016416640723703633,
        0.0019822303150852484,
        -0.0006334891492898142,
        -0.0017579647968853096,
        -0.0024384436198705743,
        0.0010579760900362581,
        0.0009012700142935532,
        -0.0010810327284979126,
        0.003654738939149336,
        -0.00041730423367992894,
        0.0028202193601699786,
        0.00033993064185235155,
        -0.00044022025702355853,
        -0.0003501146515358548,
        -0.002666772877682501,
        2.5349358317823577e-05,
        -0.00370959855846738,
        0.000939507643871159,
        -0.0011440353358534504,
        -0.0012381810408543677,
        0.0023381827645770465,
        0.0018415924932567032,
        0.0008994640147515268,
        -0.0017941827620015587,
        -0.001767459879982225,
        -0.001768425910408043,
        0.0013572235184642356,
        0.0020169004984673146,
        0.0002599215227765752,
        0.0037828787925080353,
        0.00031493936803431985,
        0.0020020843810335323,
        -0.0003735058250176451,
        -0.00041625738511901064,
        0.07980360202651621,
        -0.003316828963058776,
        0.0003203019225096427,
        -0.003307641598391698,
        0.000689274184091024,
        5.1490265499423834e-05,
        -3.2375424035729775e-05,
        0.00260266934572425,
        0.001116244757490799,
        -0.00041555787820128187,
        -0.002480510912778056,
        -0.0008058919470495047,
        -0.0007411225227504365,
        0.00019407448449617498,
        0.002916514889839755,
        0.000679335495021933,
        0.0035778291279135927,
        0.00025816558364393546,
        0.033233900972739185,
        0.08022989282501279,
        -0.0014469436993814072,
        0.0005092679344320338,
        -0.0037011824539831366,
        -0.000890155496096105,
        -0.0025769528842896697,
        -0.0008102613964664003,
        -0.14065743738942477,
        -0.035739771634303405,
        -0.14935515316517597,
        -0.00013053265917250612,
        -0.0015080482923938297,
        -0.0025623526390759215,
        0.000614974448992432,
        0.0004474595033117163,
        -0.001065850509906421,
        0.16849816701427348,
        -0.0007356681111841946,
        0.003076802123233925,
        0.00012208962971431702,
        -2.856162873954727e-05,
        -7.010949093619169e-05,
        -0.0023630084935128528,
        -0.0005737035798682066,
        -0.003771597854662696,
        0.00044519765270563085,
        -0.0015749838882329792,
        -0.001418537271532541,
        0.0020997676126035952,
        0.0018868422251018986,
        0.0013572753306149926,
        -0.0013964536600984978,
        -0.0018837001245181773,
        -0.002074834024519168,
        0.0014241187944963756,
        0.0016130494833612378,
        -0.0003892296744808918,
        0.0037747700360219283,
        0.0005954149505067221,
        0.002334049443697452,
        -8.319630656627194e-07,
        -8.729995276774262e-06,
        -5.772641062891032e-05,
        -0.003098448337070861,
        0.0007291856767810196,
        -0.0035005008625826517,
        0.0010474211538346856,
        -0.0004058809087116739,
        -0.000569248633138953,
        -0.1629262634899557,
        -0.03019046191923709,
        -0.15052600518082765,
        -0.01778970062956956,
        -0.13812570065499846,
        -0.005388891420969148,
        -0.12572534975277896,
        0.007011965864782557,
        -0.11332495231461562,
        0.019412871385763718,
        -0.1009245081810902,
        0.03181382529991249,
        -0.08852401719292109,
        -0.20933576062497636,
        -0.07612347919096299,
        -0.19645734402288026,
        -0.06372289401620776,
        -0.1840572098866941,
        -0.05132226150978486,
        -0.17165702996629278,
        -0.03892158151296136,
        -0.15961427001262077,
        -0.0265208538671428,
        -0.14685653213276892,
        -0.014120078413873607,
        -0.1344562138999436,
        -0.0017192549948372164,
        -0.12205584924349903,
        0.010681616548143244,
        -0.10965543800392165,
        0.023223740286882292,
        0.029044339896129995,
        0.03567425238646485,
        -0.08485447513799373,
        -0.20518802333097733,
        -0.07245392319329702,
        -0.19278792133452693,
        -0.06005332402877626,
        -0.18038777366663206,
        0.12090572713880546,
        -0.16655736346117664,
        -0.029555892156912966,
        -0.15558734067605481,
        -0.02285124162866005,
        -0.14318705503348067,
        -0.010450451997925724,
        -0.13078672307967915,
        0.0019503856453978036,
        -0.11881130836718767,
        0.01294374875558722,
        -0.10636118541939209,
        0.026752205602214193,
        -0.09358544775549854,
        -0.2139186800777791,
        -0.0811849289620554,
        -0.20151861014160874,
        -0.06878436306069982,
        -0.18911849464683017,
        -0.05638374989250499,
        -0.17671833343320295,
        -0.04398308929868182,
        -0.1643181263406195,
        -0.03158238112057929,
        -0.1519178732091064,
        -0.01918162519968514,
        -0.13951757387882485,
        -0.006780821377625877,
        -0.12711722819007046,
        0.005620030503832313,
        -0.1147168359832745,
        0.018020930602783584,
        -0.10231639709900375,
        0.03042187907718162,
        -0.08991591137796091,
        -0.21024927636387586,
        -0.07751537866098554,
        -0.1978491929627776,
        -0.06511479878905413,
        -0.18544906395563915,
        -0.05271417160328054,
        -0.1730488891822593,
        -0.04031349694491642,
        -0.16064866848257014,
        -0.027912774655351785,
        -0.14824840169663817,
        -0.015512004576115353,
        -0.13584808866466408,
        -0.003111186548875045,
        -0.12344772922698397,
        0.009289679584561809,
        -0.11104732322406875,
        0.02169059398224771,
        -0.09864687049652554,
        0.03409155680209483,
        -0.08624637088509758,
        -0.2065798686703966,
        -0.07384582423066473,
        -0.1941797717903303,
        -0.06144523037424416,
        -0.18177962925680363,
        -0.04904458915699051,
        -0.1693794409096543,
        -0.036643900420196295,
        -0.15697920658885453,
        -0.0242431640052926,
        -0.14457892613451043,
        -0.011842379753849172,
        -0.13217859938686266,
        0.0005584524924248229,
        -0.11977822618628695,
        0.012959332891680563,
        -0.10737780637329478,
        0.025360261601929127,
        -0.09497733978853336,
        0.03776123878104111,
        -0.08257682627278644,
        -0.2029104569931856,
        -0.07017626566697441,
        -0.19051034662011473,
        -0.05777565781215503,
        -0.17811019054617452,
        -0.04537500254952371,
        -0.1657099886112426,
        -0.032974299720413915,
        -0.1533097406553307,
        -0.02057354916629772,
        -0.14090944651858456,
        -0.008172750728786139,
        -0.12850910604128496,
        0.00422809575037045,
        -0.11610871906384777,
        0.016628990429281832,
        -0.10370828542682456,
        0.02902993346591741,
        -0.09130780497090281,
        -0.21164111962014684,
        -0.07890727753690674,
        -0.19924104132808795,
        -0.0665067029657972,
        -0.18684091744797915,
        -0.05410608109867285,
        -0.17444074781960398,
        -0.04170541177676973,
        -0.16204053228287946,
        -0.029304694841462423,
        -0.14964027067785718,
        -0.016903930134264028,
        -0.137239962844723,
        -0.004503117496826696,
        -0.12483960862379719,
        0.007897743229057778,
        -0.112439207855536,
        0.02029865220145772,
        -0.10003876038053104,
        0.03269960957830109,
        -0.08763826603951033,
        -0.20797171343665127,
        -0.07523772467333831,
        -0.19557162167094957,
        -0.06283713612301679,
        -0.18317148426977303,
        -0.050436500229684836
      ],
      [
        0.0010490091112259957,
        0.0011516310482032309,
        0.0023494693074028305,
        5.3394294487283094e-05,
        -0.0013897207982709317,
        -0.002587115410883853,
        0.0004281626798969009,
        0.00028102918497340456,
        -0.0009766718420650862,
        0.003452736009448509,
        -0.000674797877585647,
        0.003161632401629846,
        -0.000158333495755019,
        0.00012040064263956862,
        0.00022426985740105806,
        -0.0022459091940968032,
        -0.0006129969466361399,
        -0.0037818389372270044,
        0.00021506746905965558,
        -0.001725973954289726,
        -0.0014293552282559135,
        0.001996990204900027,
        0.001866860113488075,
        0.0015111520072149135,
        -0.0012370803863023506,
        -0.0018889077601694023,
        -0.0021714222882449874,
        0.0013905492752091992,
        0.0014595879466761511,
        -0.000604380608246296,
        0.172107447823834,
        0.00046608809924216773,
        0.002448584624008341,
        0.0002395450185549476,
        0.00014060669263297543,
        -0.0002643347019327846,
        -0.0030101436113871395,
        0.0007184969818082322,
        -0.0035584828805225273,
        -0.05610197978546625,
        -0.0005719811320445111,
        -0.04282364853593406,
        0.002536547148655762,
        0.001587696934306913,
        0.00026865568254767953,
        -0.0021972090491307436,
        -0.0014093679829971068,
        -0.0013051178262963423,
        0.0009409602602341476,
        0.006652137780429868,
        0.05668423853149228,
        0.0037236931727416623,
        -0.0005105925994581938,
        0.0015481474221095003,
        0.00048223360871612003,
        -0.0009240093672267844,
        -0.00041455045210760056,
        -0.003538907532433389,
        -0.0005380954591507436,
        -0.0029934457220537336,
        -2.8239666443031185e-05,
        0.0006222991435131517,
        0.0006652214185721222,
        0.002517571355154956,
        0.0005476826909335586,
        -0.0010027473637586955,
        -0.0025965762405756754,
        -0.00011946752326832543,
        -0.00017545911880799967,
        -0.0005519187110181292,
        0.003246677777003282,
        -0.00013681104356029895,
        0.003369859630248416,
        -0.00010408296278736169,
        0.0005262868463072128,
        0.00017670889230072775,
        -0.00190756595416655,
        -0.00010866119312410728,
        -0.0037766618645643686,
        -0.0004252352024303022,
        -0.002121807760904142,
        -0.0012979277040789466,
        0.0016754452122296989,
        0.0017099459707809262,
        0.0018909538763078387,
        -0.0007675817405316152,
        -0.0018047427763510364,
        -0.0023910766346550805,
        0.0011544811374475151,
        0.0010232074075612236,
        -0.0010231938947173115,
        0.0036840284030970356,
        -0.0002306092274918204,
        0.00274463208132878,
        0.00034147139155747615,
        0.0005527039745652741,
        -0.0003414713915574764,
        -0.0027446320813287756,
        0.0002306092274918204,
        -0.0036840284030970356,
        0.0010231938947173125,
        -0.0010232074075612236,
        -0.0011544811374475151,
        0.002391076634655081,
        0.001804742776351035,
        0.0007675817405316152,
        -0.0018909538763078387,
        -0.0017099459707809296,
        -0.0016754452122296989,
        0.0012979277040789444,
        0.0021218077609041473,
        0.0004252352024303022,
        0.016849151914320515,
        0.06653364620619642,
        0.00190756595416655,
        -0.00017670889230072775,
        -0.0005262868463072241,
        0.00010408296278735277,
        -0.003369859630248416,
        0.00013681104356030768,
        -0.003246677777003285,
        -0.05363499999544939,
        0.0031171598575127036,
        0.00011946752326833269,
        0.0025965762405756754,
        0.0010027473637586955,
        -0.0005476826909335597,
        -0.002517571355154956,
        -0.0006652214185721222,
        0.15525340637028584,
        2.823966644303769e-05,
        0.0029934457220537336,
        0.0005380954591507436,
        0.003538907532433386,
        0.00041455045210760056,
        0.0009240093672267844,
        -0.0004822336087161202,
        -0.0015481474221095003,
        0.0005105925994581938,
        -0.0037236931727416657,
        -0.0008474686015706714,
        -0.0024844918610007387,
        -0.00094096026023414,
        0.0013051178262963345,
        0.0014093679829971068,
        0.0021972090491307436,
        -0.0002686556825476828,
        -0.001587696934306913,
        -0.002536547148655762,
        0.0007475163241746088,
        0.0005719811320445111,
        -0.0011047618065077613,
        0.0035584828805225273,
        -0.0007184969818082336,
        0.0030101436113871395,
        0.0002643347019327846,
        -0.00014060669263298692,
        -0.0002395450185549476,
        -0.002448584624008341,
        -0.00046608809924217413,
        -0.0037596247735449603,
        0.000604380608246296,
        -0.1807531226636515,
        -0.046312347679961854,
        -0.16819341391614281,
        -0.03375250922373742,
        -0.15563369315081632,
        -0.021192658529562,
        -0.1430739603470627,
        -0.008632795576923537,
        -0.13051421548428202,
        0.003927079654681045,
        -0.11795445854188288,
        0.01648696718574563,
        -0.10539468949928299,
        0.029046867036754773,
        -0.09283490833590961,
        -0.21471554037513457,
        -0.08027511503119834,
        -0.20215586402150348,
        -0.06771530956459425,
        -0.18959617570582846,
        -0.05515549191555153,
        -0.17703647540747608,
        -0.04259566206353326,
        -0.16447676310582188,
        -0.030035819988011705,
        -0.15191703878025026,
        -0.01747596566846839,
        -0.13935730241015462,
        -0.004916099084393784,
        -0.1267975539749377,
        0.0076663114138551215,
        -0.11375801345451139,
        0.02024037172580729,
        -0.10167802082679407,
        0.03276357445997472,
        -0.08911823607271757,
        -0.2109989026990908,
        -0.07655843917121981,
        -0.19843922280782106,
        0.10184849580317475,
        -0.17528445875230567,
        -0.05125469011838083,
        -0.17331982710019936,
        -0.03887897537672069,
        -0.16076011124259426,
        -0.02631912968010539,
        -0.14820038335497313,
        -0.013759271733398123,
        -0.13577989967611945,
        -0.0015627032452180593,
        -0.1232059554068715,
        0.011360480992309852,
        -0.1105211273060187,
        0.02392037581229655,
        -0.097961351092384,
        0.03648028296434715,
        -0.08540156274580407,
        -0.2072822639768311,
        -0.07284176224571999,
        -0.19472258054611571,
        -0.06028194957158222,
        -0.1821628851411435,
        -0.0477221247028502,
        -0.1696031777412869,
        -0.03516228761899252,
        -0.1570434583259261,
        -0.022602438299486844,
        -0.14448372687445105,
        -0.010042576723819946,
        -0.1319239833662606,
        0.002517297128512151,
        -0.11936422778076261,
        0.015077183278004263,
        -0.1068044600973738,
        0.027637081745142185,
        -0.09424468029552009,
        -0.21612529922006177,
        -0.08168488835463632,
        -0.20356562420782073,
        -0.06912508425416651,
        -0.1910059372358523,
        -0.05656526797356371,
        -0.17844623828352207,
        -0.04400543949229009,
        -0.16588652733020448,
        -0.03144559878981695,
        -0.15332680435528312,
        -0.018885745845624597,
        -0.14076706933815028,
        -0.006325880639202626,
        -0.12820732225820752,
        0.0062339968499503465,
        -0.11564756309486533,
        0.018793886642326434,
        -0.10308779182754306,
        0.03135378875840858,
        -0.09052800843566934,
        -0.21240866194071856,
        -0.07796821289868179,
        -0.1998489833915247,
        -0.06540840519602695,
        -0.18728929287649634,
        -0.05284858530716075,
        -0.17472959037500171,
        -0.040288753211547866,
        -0.16216987586641826,
        -0.027728908888662362,
        -0.14961014933013175,
        -0.015169052317987342,
        -0.13705041074553742,
        -0.0026091834790149485,
        -0.12449066009203917,
        0.009950697648753311,
        -0.1119308973490505,
        0.02251059108580701,
        -0.09937112249599339,
        0.035070496852626316,
        -0.08681133551229916,
        -0.20869202361536252,
        -0.07425153637740788,
        -0.19613234152740824,
        -0.061691725070769116,
        -0.1835726474675134,
        -0.04913190157184116,
        -0.17101294141504855,
        -0.03657206586009166,
        -0.15845322334939374,
        -0.024012217914997244,
        -0.1458934932499378,
        -0.011452357716043632,
        -0.1333337510960782,
        0.0011075147572740896,
        -0.12077399686722208,
        0.013667399525451965,
        -0.10821423054278508,
        0.026227296608976585,
        -0.09565445210219192,
        0.0387872060283256,
        -0.08309466152487674,
        -0.20497538424345846,
        -0.07053485879028223,
        -0.19241569861493668,
        -0.05797504387786071,
        -0.17985600100836863,
        -0.045415216767073135,
        -0.167296291403128,
        -0.032855377437389754,
        -0.1547365697785972,
        -0.02029552586829001,
        -0.14217683611416754,
        -0.007735662039262308,
        -0.1296170903892397,
        0.004824214070195621,
        -0.11705733258322298,
        0.017384102480576976,
        -0.10449756267553584,
        0.029944003212365757,
        -0.09193778064560579,
        -0.21381842103184978,
        -0.07937798647286944,
        -0.20125874382447154,
        -0.06681818013677251
      ],
      [
        -0.003327174780179159,
        0.0007319583471783375,
        1.0044296665071158e-05,
        -8.280775745097408e-05,
        0.002603243078832673,
        0.0011528496732794258,
        -0.00037096996810270615,
        -0.00246668484549745,
        -0.0008516073421114467,
        -0.0007803603588144973,
        0.00024900194281635233,
        0.0028901443082585557,
        0.0007195125529583385,
        0.003590098420518152,
        0.00018586200930539133,
        0.0010659397874752687,
        -0.0004201672640852856,
        -0.0014129333884346576,
        0.00048589840444451424,
        -0.01855566487277114,
        -0.0008960999265788677,
        0.0004833071162120757,
        -0.0007640656845592196,
        0.0011604702327437624,
        0.0012678074580965868,
        0.0022884337359601013,
        -8.448579108855298e-05,
        -0.0014797276305432373,
        -0.0025695850971940437,
        0.0005692486331389569,
        0.13834934191719306,
        -0.0010474211538346856,
        0.003500500862582647,
        -0.0007291856767810177,
        0.003098448337070861,
        5.772641062891742e-05,
        8.729995276774262e-06,
        8.319630656627194e-07,
        -0.002334049443697452,
        -0.07153188378111514,
        -0.0037747700360219283,
        -0.05821254437515247,
        -0.0016130494833612378,
        -0.0014241187944963756,
        0.002074834024519168,
        0.0018837001245181767,
        0.001396453660098502,
        -0.0013572753306149926,
        -0.0018868422251018986,
        -0.009217014912908373,
        0.038438377365841644,
        0.0015749838882329792,
        -0.0004451976527056296,
        0.003771597854662696,
        0.0005737035798682066,
        0.002363008493512851,
        7.0109490936197e-05,
        2.856162873954727e-05,
        -0.00012208962971431702,
        -0.003076802123233919,
        0.0007356681111841946,
        -0.0035156091037186104,
        0.0010658505099064239,
        -0.0004474595033117163,
        -0.000614974448992432,
        0.0025623526390759228,
        0.0015080482923938265,
        0.00013053265917250612,
        -0.0022666735886632287,
        -0.001304675196278489,
        -0.0011970736909625158,
        0.0008102613964664003,
        0.0025769528842896697,
        0.000890155496096105,
        0.0037011824539831366,
        -0.0005092679344320311,
        0.001446943699381399,
        0.0004716636047150124,
        -0.0010306103719839737,
        -0.00025816558364392657,
        -0.0035778291279135927,
        -0.000679335495021933,
        -0.002916514889839762,
        -0.00019407448449617498,
        0.0007411225227504365,
        0.0008058919470495011,
        0.002480510912778056,
        0.00041555787820128187,
        -0.0011162447574908057,
        -0.00260266934572425,
        3.2375424035729775e-05,
        -5.1490265499423834e-05,
        0.052471255259524674,
        0.003307641598391698,
        0.041676722825280565,
        0.003316828963058776,
        -0.00031657041895442195,
        0.00041625738511901064,
        0.00037350582501763954,
        -0.002002084381033534,
        -0.00031493936803431985,
        -0.0037828787925080383,
        -0.0002599215227765693,
        -0.0020169004984673146,
        -0.0013572235184642356,
        0.0017684259104080425,
        0.001767459879982225,
        0.0017941827620015587,
        -0.0008994640147515253,
        -0.0018415924932567032,
        -0.0023381827645770465,
        0.0012381810408543686,
        0.0018059485730989276,
        0.04697501834971356,
        0.00370959855846738,
        -2.5349358317827968e-05,
        0.002666772877682501,
        0.0003501146515358548,
        0.0004402202570235544,
        -0.00033993064185235155,
        -0.15580010099847355,
        -0.06698485200064082,
        -0.17035547258143802,
        0.0010810327284979126,
        -0.0009012700142935532,
        -0.0010579760900362536,
        0.0024384436198705743,
        0.0017579647968853096,
        0.0006334891492898178,
        0.12377560899550033,
        -0.0016416640723703633,
        -0.0015788335698464539,
        0.0012215891451928058,
        0.0022242435834807154,
        0.0005740920837696718,
        0.0037668872203766367,
        -0.00011092319775503784,
        0.001811479963872735,
        7.589780667526192e-05,
        -0.0006357097446068577,
        -0.00016166681655239746,
        -0.0034199746090264912,
        -5.6640871610581995e-05,
        -0.0031822000823394183,
        0.0004029230831671043,
        0.00029871363749393127,
        0.0002711187636546561,
        0.002583886344516981,
        0.0008841794703120224,
        -0.0006768950022042643,
        -0.0025479853084178624,
        -0.0005200594931452906,
        -0.0005019805886289374,
        -0.0001369709144515165,
        0.003067055645575257,
        0.0003708277385639363,
        0.0034968575633341986,
        0.0004391990238235555,
        0.0008165446668131347,
        -0.0004024535298817663,
        -0.0016480533810536682,
        0.0004163226989767511,
        -0.19279903959076838,
        -0.06116384425500454,
        -0.180501761510463,
        -0.04886570798960375,
        -0.1682044050335088,
        -0.03656748941584781,
        -0.15590696979250415,
        -0.02426918817069771,
        -0.14360945542044604,
        -0.011970803891532126,
        -0.1313118615507324,
        0.0004950118114635091,
        -0.1190141878171643,
        0.012675074031493165,
        -0.10671643385394677,
        0.024924850769969073,
        -0.09441859929569137,
        0.03722357080299625,
        -0.08212068377741703,
        -0.20398868387516203,
        -0.06982268693455283,
        -0.18950981488515975,
        -0.05752460840293884,
        -0.17686275604265836,
        -0.045226447818828334,
        -0.1645653762962312,
        -0.03292820481888938,
        -0.152267917677109,
        -0.020629879040206377,
        -0.13997037981840726,
        -0.008316819284320317,
        0.04357323868537625,
        0.004028468261737899,
        -0.11537506491673655,
        0.01626559859117942,
        -0.10307728714201321,
        0.02856425910560496,
        -0.09077942866420476,
        -0.21011548263032245,
        0.09544902226588735,
        -0.18965283341437655,
        0.08976560610884746,
        -0.18552106813423772,
        -0.05388536536572363,
        -0.17322374370031418,
        -0.041587180431087264,
        -0.16092634065225203,
        -0.029288912973185578,
        -0.14914926106234286,
        -0.014333947338113112,
        -0.13680471216505283,
        -0.004692129036836944,
        -0.12403365615357591,
        0.007606388165936143,
        -0.1117359349813099,
        0.019904989340623565,
        -0.09943813336309482,
        0.03220367484833243,
        -0.08714025093378346,
        -0.20647653275265246,
        -0.07484228732863711,
        -0.1941793414365604,
        -0.06254424218332785,
        -0.18188207213292765,
        -0.05024611513394018,
        -0.16958472447390974,
        -0.03794790581697251,
        -0.15728729809206043,
        -0.02564961386933921,
        -0.1449897926203319,
        -0.013351238928372021,
        -0.13269220769207715,
        -0.0010527806318218296,
        -0.12039454294105174,
        0.011245761382139471,
        -0.10809679800141529,
        0.02354438747491757,
        -0.09579897250773357,
        0.035843098007493815,
        -0.08350106609498,
        -0.20283757607803757,
        -0.07120307839853722,
        -0.1905403617223435,
        -0.058905009054199174,
        -0.17824306927021558,
        -0.04660685769817275,
        -0.16594569835392692,
        -0.0343086239670793,
        -0.15364824860614903,
        -0.0220103074979564,
        -0.14135071965995244,
        -0.009711907928259652,
        -0.1290531111488093,
        0.0025865751041355043,
        -0.1167554227065942,
        0.014885141960932564,
        -0.10445765396758717,
        0.0271837930034116,
        -0.09215980456647417,
        -0.21149577218717716,
        -0.07986187413834966,
        -0.1991986125969323,
        -0.06756386231871775,
        -0.1869013751694004,
        -0.05526576874349448,
        -0.17460405953657632,
        -0.04296759304900906,
        -0.1623066653308507,
        -0.03066933487200596,
        -0.15000919218501307,
        -0.018370993849646265,
        -0.13771163973225248,
        -0.00607256961950958,
        -0.12541400760616,
        0.006225938180404185,
        -0.11311629544073014,
        0.018524529911673335,
        -0.10081850287036276,
        0.030823205935452725,
        -0.08852062952986463,
        -0.207856824885161,
        -0.07622267505445103,
        -0.1955596422997936,
        -0.06392463907974812,
        -0.1832623817681987,
        -0.05162652124179368,
        -0.17096504292248774,
        -0.03932832117703989,
        -0.1586676253951695,
        -0.02703003852235418,
        -0.14637012881915118,
        -0.014731672915021359,
        -0.13407255282774097,
        -0.0024332239927452467,
        -0.12177489705464897,
        0.009865308606349672,
        -0.10947716113398953,
        0.022163925243716527,
        -0.09717934470028274,
        0.03446262628038441,
        -0.08488144738845602,
        -0.20421787078982157,
        -0.07258346883384603,
        -0.19192066517708217,
        -0.06028540867220063,
        -0.17962338150920887,
        -0.047987266539680114,
        -0.16732601941843078,
        -0.03568904207285918,
        -0.15502857853737423,
        -0.023390734908728762,
        -0.14273105849906498,
        -0.011092344684697343,
        -0.13043345893693004,
        0.0012061289614068423,
        -0.11813577948479873,
        0.013504686391334494,
        -0.10583801977690556,
        0.025803327966413558,
        -0.09354017944789061,
        0.038102054047547226,
        -0.08124225813280264
      ],
      [
        -0.002718927944016145,
        0.00016337689570626487,
        -0.0036929650575627825,
        0.000998108160844622,
        -0.0010636148635222013,
        -0.0011838616903802304,
        0.0023740512714980717,
        0.0018181467304008922,
        0.0008118101635097925,
        -0.001859296064545247,
        -0.0017303255110201541,
        -0.0017068529379962115,
        0.0013196142323496423,
        0.0020871076054330864,
        0.00037165981188454385,
        0.0037791310584751846,
        0.0001804181095726087,
        0.0019392499120719103,
        -0.00025293565207817496,
        -0.0004896743477376037,
        0.00018630805737176906,
        -0.0033525036922865794,
        0.00019965458817222355,
        -0.0032673916073435285,
        0.000599145379769576,
        0.0001342052909653229,
        6.88109317128708e-05,
        0.002599337976245701,
        0.001041172091005587,
        -0.0005039357943306267,
        -0.0025059553470430894,
        -0.0007126620670103221,
        -0.000662083813783704,
        8.359022633574553e-05,
        0.0029681680200487177,
        0.0005884106447595562,
        0.003552231697201104,
        0.000374811098567598,
        0.0009596425158414554,
        -0.06329512385335284,
        -0.0015145534251266245,
        -0.054762695614921794,
        -0.003716567625180265,
        -0.0008657445678183468,
        -0.0025156338976916933,
        -0.0008987732732861947,
        0.0012694057370902546,
        0.0013754779566303753,
        0.002221056501728073,
        -0.0244774130477301,
        -0.0015620516868731233,
        -0.002545829227132982,
        0.0007041600635356698,
        0.0005305165496289345,
        -0.001094577722919629,
        0.0035446008033270643,
        -0.0007303716799329503,
        0.003032647262559664,
        0.00022619291958325097,
        -0.00010323238913408344,
        -0.00019169498578526295,
        -0.0024202787866990103,
        -0.0005085538173109879,
        -0.00376402579537523,
        0.0005529371715989771,
        -0.0014982477936232468,
        -0.0014017302280613273,
        0.0021480690025326363,
        0.0018894411024575496,
        0.0012775756409119854,
        -0.001473404184864719,
        -0.0018737116670705463,
        -0.002023437863773476,
        0.001429543187655758,
        0.0016885496409986748,
        -0.00027397739584011417,
        0.0037798898793507374,
        0.0006152870246155044,
        0.002275497080466511,
        -0.0001511488724733664,
        -8.321357619629527e-05,
        8.558582173143463e-05,
        -0.0031408659359903057,
        0.0006985632056021758,
        -0.0034690634601984923,
        0.0010027584028235606,
        -0.00032265865463505534,
        -0.0004757907425592541,
        0.0025819704613254924,
        0.0014205442936509882,
        -7.497819765574622e-06,
        -0.0023298355367561236,
        -0.0011912597070800777,
        -0.0010864296961376665,
        0.0006681419353809579,
        0.0026664689031699524,
        0.0008951256446160952,
        0.003675293979800348,
        -0.0004058562375835386,
        0.0013445153901736181,
        -4.273795642222982e-05,
        -0.001136276320998037,
        -2.5939592406792997e-05,
        -0.0036135684049672335,
        -0.000788395994220008,
        -0.0028363277144011715,
        -0.0003577274375388854,
        0.0008582323305385735,
        0.0009410617515895928,
        0.0024368327013017297,
        0.0002811033571713922,
        -0.0012240899096523622,
        -0.0138258557038525,
        0.000183103262128129,
        7.298680058921085e-05,
        -0.0008120343702092475,
        0.0033650505148446913,
        -0.000482255267525479,
        0.003260944240041435,
        -0.00038449454690127176,
        0.03424465638492224,
        0.0004385481645343754,
        -0.002094961498864795,
        -0.00047994070569182235,
        -0.0037855071666156167,
        -8.425711237240523e-05,
        -0.0019096389780016798,
        -0.0013990231074882313,
        0.0018575596670772879,
        0.0018139995710049438,
        0.0016921554549889277,
        -0.001028697794080852,
        -0.0018681767951699347,
        -0.0022799309851567777,
        0.0013079469151911377,
        0.0012635897559501882,
        -0.0008315494546161026,
        0.0037314507646311642,
        0.00017972159648849183,
        0.0025867129849355764,
        0.00034960033307268243,
        0.0003277716771719326,
        -0.0003397682893547372,
        -0.002893464111887743,
        0.0005697709467316324,
        -0.0036217327442064776,
        0.001112190040484662,
        -0.0007783922534707384,
        -0.0009498850825400809,
        0.0024801234958255246,
        0.0017016386741309014,
        0.0004976451975519136,
        -0.00206779701337429,
        -0.0015628998568273933,
        -0.0014788093862836663,
        0.0011289198013964693,
        0.0023240963408150657,
        0.0007006069866580027,
        0.003753588559097152,
        -0.00031080137290937524,
        0.0017139001355901166,
        0.0002987086714028878,
        -0.20526723289108653,
        -0.07570926208835815,
        -0.19316441932703973,
        -0.06360467998144559,
        -0.1810614460431243,
        -0.05149992605488111,
        -0.1689583119004246,
        -0.03939499918879677,
        -0.15685501576174862,
        -0.027289898265169817,
        -0.1447515564916398,
        -0.01518462216783447,
        -0.13264793295638824,
        -0.003079169782492595,
        -0.12054414402404329,
        0.009026460003275262,
        -0.1084401885644237,
        0.021132268299998758,
        -0.09633606544912957,
        0.03323825621630696,
        -0.0842317735515539,
        -0.2016858046323184,
        -0.07212731174689382,
        -0.1895829439229773,
        -0.06002267891216174,
        -0.17747992315656266,
        -0.04791787392619679,
        -0.16537674119466755,
        -0.03581289566967562,
        -0.1532733969006124,
        -0.023707743025124017,
        -0.0017214498501599389,
        -0.011602414876927657,
        -0.1290662167780091,
        0.0005030898886568498,
        -0.11696237868484194,
        0.012608772383490712,
        -0.10485837373029976,
        0.024714633717542425,
        0.00034095024217038414,
        0.03682067499887659,
        -0.08012955564570451,
        -0.1981043624575501,
        -0.06854534642871069,
        -0.18600145450307679,
        -0.05644066276798168,
        -0.17389838615447512,
        -0.04433580662459945,
        -0.16179515627384825,
        -0.02598314081190319,
        -0.14969176372502976,
        -0.020125572416618755,
        -0.13758820737359584,
        -0.008020192120033359,
        -0.12548448608687587,
        0.004085365123156881,
        -0.11338059873396514,
        0.016191100424254236,
        -0.10127654418573544,
        0.028297014892664934,
        -0.08917232131484659,
        -0.20662570204469732,
        -0.07706792899575782,
        -0.19452290633722208,
        -0.06496336610473946,
        -0.18241995103782305,
        -0.052858631519883514,
        -0.17031683500739134,
        -0.040753724121115296,
        -0.1582135571085412,
        -0.028648642790204605,
        -0.14611011620562045,
        -0.016543386410776555,
        -0.13400651116472306,
        -0.004437953868322783,
        -0.12190274085369972,
        0.007667655949787412,
        -0.1097988041421703,
        0.01977344415429648,
        -0.09769469990153437,
        0.031879411854047315,
        -0.08559042700498312,
        -0.20304427905667657,
        -0.0734859843275106,
        -0.19094143624178825,
        -0.061381370745924986,
        -0.1788384334977142,
        -0.04927658513885969,
        -0.1667352696858541,
        -0.03717162638678461,
        -0.15463194366933408,
        -0.025066493372017364,
        -0.14252845431301756,
        -0.012961184978734358,
        -0.13042480048351696,
        -0.0008557000929817212,
        -0.11832098104920546,
        0.01124996239731373,
        -0.10621699488022827,
        0.023355803602333303,
        -0.09411284084851397,
        0.03546182463035596,
        -0.08200851782778623,
        -0.1994628421638714,
        -0.06990402469357453,
        -0.18735995214171525,
        -0.05779936032322611,
        -0.1752569018532615,
        -0.045694523595916706,
        -0.16315369016041953,
        -0.033589513392661786,
        -0.15105031592682852,
        -0.021484328596327897,
        -0.1389467780178678,
        -0.00937896809164352,
        -0.12684307530067004,
        0.0027265692347897934,
        -0.11473920664413143,
        0.014832284494486496,
        -0.1026351709189238,
        0.02693817879706614,
        -0.09053096699750572,
        -0.20798416920199386,
        -0.07842659375413397,
        -0.1958813913367174,
        -0.06632205006487504,
        -0.18377845400748286,
        -0.05421733480761579,
        -0.1716753560749895,
        -0.042112446862075305,
        -0.15957209640165715,
        -0.030007385109815696,
        -0.14746867385163856,
        -0.01790214843425329,
        -0.13536508729083133,
        -0.005796735720669796,
        -0.12326133558688812,
        0.006308854143777003,
        -0.1111574176092297,
        0.018414622270041852,
        -0.09905333222905544,
        0.030520569767181496,
        -0.08694907831935474,
        -0.20440275148046527,
        -0.07484465475491878,
        -0.192299926545663,
        -0.06274006041235158,
        -0.18019694180958437,
        -0.050635294170081044,
        -0.1680937961334359,
        -0.038530354908370354,
        -0.15599048838014953,
        -0.026425241509329348,
        -0.1438870174143929,
        -0.014319952856925087,
        -0.13178338210258167,
        -0.0022144878369933633,
        -0.11967958131289087,
        0.009891154662750664,
        -0.10757561391526607,
        0.021996975752701303,
        -0.09547147878143535
      ],
      [
        0.0004529970121076568,
        0.00031953935511831234,
        -0.0019707569648815333,
        -0.00024952677188118307,
        -0.0037812037486535505,
        -0.00031647954455485226,
        -0.002052137071259986,
        -0.0013393850870738293,
        0.0017378491714773684,
        0.001749499356323781,
        0.0018270360824372178,
        -0.0008557763322659354,
        -0.001830434137636829,
        -0.0023564178943558216,
        0.0012117756219165825,
        0.0011038928649902717,
        -0.000970193324536537,
        0.003701488425754027,
        -9.472328156029017e-05,
        0.007080614153769345,
        0.0003470241573173398,
        -0.158501063830242,
        -0.0003395389617329324,
        -0.0027952804086955278,
        0.0003581792156542063,
        -0.0036649152733955717,
        0.0010646914262185073,
        -0.0009420287505561995,
        -0.001091493621211757,
        0.002423278801647137,
        0.02020635979619133,
        0.0006784043577808992,
        -0.0019524291101293164,
        -0.0016656051766042275,
        -0.0016114274505532981,
        0.0012488904419916827,
        0.0021903799184797425,
        0.0005266722416857978,
        0.003770538714377019,
        -0.056985295085798006,
        0.0018436782490149697,
        -0.00304273724396511,
        -0.0005993071099751452,
        -7.422645894816673e-05,
        -0.0034035973265669527,
        8.238352042935478e-06,
        -0.003204080344208416,
        0.00045369534348590785,
        0.0002577210265532891,
        -0.03514286785827617,
        -0.07979028869275075,
        0.0009242293152839793,
        -0.0006341840451639855,
        -0.00253858681685447,
        -0.0005688804068334427,
        -0.0005422395027891877,
        -8.214910365988027e-05,
        -0.012554520112508008,
        0.00042901817894564403,
        0.0035112184104823447,
        0.0004478222027954503,
        0.0008524578147469741,
        -0.00043874391536864976,
        -0.0016149001174605008,
        0.00045725782267683,
        -0.0037368023305825045,
        -0.0007993746909000557,
        -0.17707078195445888,
        -0.0010208980914318904,
        0.0013755929168319699,
        0.0014740207823134156,
        0.0021474620831313045,
        -0.00036052868851801977,
        -0.0016361832167805736,
        -0.0025159655290560713,
        0.0008314985821100283,
        0.0006547481558613599,
        -0.0011165333295328614,
        0.0035850164408509876,
        -0.0006764492859342407,
        0.0029642964457150416,
        0.0003141087605230546,
        -0.00021542113787193775,
        -0.0003074060248221622,
        -0.002504524195983869,
        -0.000364302727518584,
        -0.003749590208701869,
        0.0007016582444915807,
        -0.0013817117851502138,
        -0.0013627597371401123,
        0.0022164982952083694,
        0.001884205786886005,
        -0.14580735286026802,
        -0.0015851340200751566,
        -0.08456844785849084,
        -0.0019426334652801495,
        0.0014231204148157143,
        0.0018001459341610493,
        -9.566635517023513e-05,
        0.0037845191222250297,
        0.0005836203990182545,
        0.002186123600944655,
        -0.000349259802135434,
        -0.00019465303130034657,
        0.0002871969554652109,
        -0.003202268468126759,
        0.000611589392179409,
        -0.003418868303668177,
        0.0009173911259886709,
        -0.00019776942164686237,
        -0.0003313679187159571,
        0.0025952911571948444,
        0.03632532374891737,
        -0.06877002416811556,
        -0.0023865848502860345,
        -0.0010698004640971568,
        -0.000973408503294894,
        0.0005165615857370655,
        0.0027529540104044604,
        0.0008610758252393648,
        0.045269363667384,
        -0.09006829916848312,
        0.05671107105287589,
        0.0,
        -0.0012409354013457829,
        0.00021482104863819983,
        -0.0036460733492033734,
        -0.0008610758252393648,
        -0.002752954010404455,
        0.0013394034647183433,
        -0.16588316541341325,
        0.001069800464097155,
        0.0023865848502860345,
        0.00014489465836532147,
        -0.001325709944905326,
        -0.0025952911571948444,
        0.0003313679187159571,
        0.00019776942164686237,
        -0.0009173911259886647,
        0.003418868303668177,
        -0.000611589392179409,
        0.00320226846812676,
        -0.0002871969554652109,
        0.00019465303130034657,
        0.0003492598021354376,
        -0.00218612360094465,
        -0.0005836203990182545,
        -0.0037845191222250297,
        9.566635517023665e-05,
        -0.0018001459341610493,
        -0.0014231204148157143,
        0.0019426334652801443,
        0.0018494354962756052,
        0.0015851340200751566,
        -0.0011548664673141661,
        -0.0018842057868860055,
        -0.0022164982952083694,
        0.0013627597371401127,
        0.0013817117851502138,
        -0.0007016582444915807,
        0.003749590208701869,
        0.00036430272751857945,
        0.06587280441274392,
        -0.057359714881367485,
        -0.18059221472293172,
        -0.04466067593822457,
        -0.16789317778166454,
        -0.03196163678844755,
        -0.15519414063438344,
        -0.0192625974319726,
        -0.1424951032810243,
        -0.006563557868735842,
        -0.1297960657215233,
        0.011560829983283118,
        -0.11709702795581658,
        0.015587930794167903,
        -0.10439798998384013,
        0.031533562062183856,
        -0.09169895180553014,
        0.0442326024531065,
        -0.07899991342082266,
        0.062341227586485554,
        -0.06630087482965384,
        0.06636892475308877,
        -0.05360183603195983,
        -0.17683433646585123,
        -0.04090279702767671,
        -0.1641352994636274,
        -0.028203757816740654,
        -0.15143626225537082,
        -0.015504718399087748,
        -0.13873722484101716,
        -0.0060038382320835365,
        -0.13908370097428666,
        0.0066935136585158485,
        -0.11333914939376358,
        0.022592401094810678,
        -0.10064011136073595,
        0.03529144133996961,
        -0.08794107312135578,
        0.047990481792164676,
        -0.08468913089798169,
        0.06529114642992129,
        -0.10183954634871689,
        0.0733885633179186,
        -0.04984395716446162,
        -0.17307645819073458,
        -0.03714491809903278,
        -0.16037742112754858,
        -0.024445878826932072,
        -0.15085728397884565,
        0.0037643605889366286,
        -0.13815993493292525,
        0.0009522003375404669,
        -0.12228030870142342,
        0.013651240230039993,
        -0.10958127081364637,
        0.026350280329466874,
        -0.09688223271956192,
        0.04715734650887684,
        -0.084183194419106,
        0.051748361149358026,
        -0.07148415591221491,
        0.06444740186995003,
        -0.0587851171988246,
        0.0771464427977248,
        -0.046086078278871304,
        -0.16931857989758006,
        -0.03338703915229107,
        -0.148429351179054,
        -0.020687999819020083,
        -0.14392050544320137,
        -0.007988960278994508,
        -0.131221467906842,
        0.004710079467849618,
        -0.11852243016428393,
        0.017409119421576108,
        -0.10582339221546339,
        0.030108159582248866,
        -0.09312435406031648,
        0.04280719994993164,
        -0.08042531569877925,
        0.05550624052468839,
        -0.06772627713078784,
        0.06820528130658284,
        -0.05502723835627843,
        -0.17825973856548752,
        -0.04232819937518707,
        -0.16556070158638592,
        -0.029629160187449936,
        -0.15286166440125853,
        -0.016930120793003114,
        -0.14016262701004154,
        -0.004231081191782755,
        -0.1274635894126707,
        0.008467958616275008,
        -0.11476455160908242,
        0.02116699863123403,
        -0.10206551359921281,
        0.03386603885315814,
        -0.08936647538299798,
        0.04656507928211133,
        -0.07666743696037376,
        0.05926411991815726,
        -0.0639683983312765,
        0.07196316076135988,
        -0.051269359495642396,
        -0.17450186029721226,
        -0.038570320453407386,
        -0.16180282325715073,
        -0.025871281204507657,
        -0.14910378601104424,
        -0.013172241748879454,
        -0.13640474855882906,
        -0.00047320208645877974,
        -0.12370571090044152,
        0.012225837782818251,
        -0.11100667303581752,
        0.024924877859015374,
        -0.09830763496489311,
        0.03762391814219655,
        -0.08560859668760454,
        0.0503229586324256,
        -0.07290955820388782,
        0.06302199932976635,
        -0.060210519513679235,
        0.0757210402342827,
        -0.04751148061691474,
        -0.17074398201090005,
        -0.03481244151353054,
        -0.15804494490987261,
        -0.022113402203462723,
        -0.1453459076027814,
        -0.009414362686647417,
        -0.13264687008956266,
        0.0032846770369791612,
        -0.1199478323701526,
        0.015983716967480976,
        -0.10724879444448715,
        0.02868275710492185,
        -0.09454975631250248,
        0.04138179744936567,
        -0.08185071797413479,
        0.054080838000876215,
        -0.06915167942931992,
        0.06677987875951742,
        -0.05645264067799433,
        -0.17968514066252902,
        -0.04375360172009393,
        -0.16698610370654882,
        -0.031054562555554843,
        -0.15428706654455,
        -0.018355523184313383,
        -0.14158802917646843,
        -0.00565648360630544,
        -0.12888899160224065,
        0.007042556178532686,
        -0.11618995382180242,
        0.019741596170264896,
        -0.10349091583509,
        0.03244063636895511,
        -0.09079187764203947,
        0.045139676774667084,
        -0.07809283924258684
      ],
      [
        0.0036842960097886166,
        -0.00045125322272444434,
        0.0013787897185477652,
        0.00028459036656855333,
        -0.001101162657118109,
        -0.00010759363400553287,
        -0.003602012155163858,
        -0.0007559179161080212,
        -0.0028634143879539458,
        -0.0003035855268991689,
        0.0008193996787750011,
        0.0008966754337957525,
        0.002452124848355886,
        0.00032614468605255233,
        -0.0011888051345878181,
        -0.0026030918949923234,
        0.00013306702766086465,
        3.145056098994138e-05,
        -0.0007729131809629497,
        0.0033463115327324482,
        -0.00043136707970127595,
        0.003279885736299732,
        -0.0003810171869432737,
        0.00034260139942710304,
        0.0004343429267884552,
        -0.0020641893785171028,
        -0.00043094868398231735,
        -0.0037850315525543724,
        -0.00014358327783972478,
        -0.001945646940320366,
        -0.0013870516071283648,
        0.0018282890697646635,
        0.001799715239957353,
        0.0017267328883815492,
        -0.0009859403130603535,
        -0.0018604748770346255,
        -0.0022999327995597047,
        0.0012863052297833895,
        0.0012238896983246996,
        0.05489000316590581,
        0.0037245795587399415,
        -0.09109455357362754,
        0.0026136397158441097,
        0.0003525870151112907,
        0.0003652467676903161,
        -0.00034095024217038414,
        -0.002869313805196779,
        0.0005235573814973166,
        -0.0036331474549039927,
        0.009461305402573936,
        -0.0008194453498052114,
        -0.0009871243514373343,
        0.0024668716128826524,
        0.0017214498501599389,
        0.000543091951799575,
        -0.002039921514922293,
        -0.001590298320119689,
        -0.0015125163882236112,
        0.001161569265427929,
        0.002291105757525476,
        0.0006612642949034702,
        0.003758410809040164,
        -0.0002484884492459243,
        0.0017465881786303968,
        0.00023201874944001776,
        -0.0007082871368383723,
        -0.00031322153567624796,
        -0.003451734994090256,
        -0.00018552158273613594,
        -0.0031372852772365532,
        0.0002986218362092567,
        0.00038038322099576626,
        0.0003714904289803449,
        0.002571742794244326,
        0.0008026071719162947,
        -0.0007611284162243023,
        -0.0025645631052528457,
        -0.0004213221543789132,
        -0.0004210445056259278,
        -0.0002453188637630429,
        0.0031142544425042393,
        0.0002487321740170178,
        0.0034671137354965005,
        0.0003708925988254925,
        0.0007444567194166858,
        -0.0002987086714028878,
        -0.0017139001355901166,
        0.00031080137290937106,
        -0.003753588559097152,
        -0.0007006069866580027,
        -0.0023240963408150597,
        -0.0011289198013964693,
        0.0014788093862836663,
        0.0015628998568273929,
        0.00206779701337429,
        -0.0004976451975519136,
        -0.0017016386741309062,
        -0.0024801234958255233,
        0.0009498850825400809,
        0.0007783922534707384,
        -0.001112190040484663,
        0.0036217327442064776,
        -0.0005697709467316324,
        0.0028934641118877422,
        0.00033976828935473695,
        -0.0003277716771719326,
        -0.0003496003330726818,
        -0.0025867129849355746,
        -0.00017972159648849183,
        -0.0037314507646311642,
        0.0008315494546161083,
        -0.0012635897559501882,
        -0.039336075941349385,
        0.002279930985156777,
        0.0018681767951699347,
        0.001028697794080852,
        -0.0016921554549889277,
        -0.0018139995710049425,
        -0.0018575596670772879,
        0.0013990231074882296,
        0.0037867701588707686,
        8.425711237240523e-05,
        0.18662041723714967,
        0.0004799407056918164,
        0.002094961498864795,
        -0.0004385481645343754,
        -0.0003056900912791511,
        0.0003844945469012726,
        -0.003260944240041435,
        0.00048225526752548523,
        -0.0033650505148446913,
        0.0008120343702092475,
        -7.298680058921085e-05,
        -0.00018310326212812324,
        0.0026022183160696105,
        0.0012240899096523622,
        -0.00028110335717139933,
        -0.0024368327013017297,
        -0.0009410617515895928,
        -0.0008582323305385735,
        0.00035772743753889407,
        0.0028363277144011715,
        0.0007883959942200058,
        0.0036135684049672335,
        2.5939592406792997e-05,
        0.001136276320998037,
        4.2737956422280994e-05,
        -0.0013445153901736181,
        0.0004058562375835386,
        -0.003675293979800353,
        -0.0008951256446160965,
        -0.0026664689031699524,
        -0.0006681419353809551,
        0.00108642969613766,
        0.0011912597070800777,
        0.0023298355367561236,
        7.497819765565623e-06,
        -0.0014205442936509882,
        -0.0025819704613254924,
        0.0004757907425592602,
        0.00032265865463505534,
        -0.0010027584028235606,
        0.007630770755909945,
        -0.09155959977152894,
        0.01786729551097435,
        -0.08134927056669526,
        0.02810690560015789,
        -0.0711365622234814,
        -0.17014925660288063,
        -0.06092140002328996,
        -0.15995470970843254,
        -0.050703709664262735,
        -0.14975837192321115,
        -0.040483417273392844,
        -0.13956016574247115,
        -0.030260449418455425,
        -0.129360013979318,
        -0.02003473311975162,
        -0.11915783977805831,
        -0.00980619586166205,
        -0.10895356662740381,
        0.00042523439599463094,
        -0.09874711837353024,
        0.010659629206802468,
        -0.08853841923297989,
        0.02089705962679115,
        -0.07832739380540711,
        -0.17732601751993732,
        -0.0681139670861586,
        -0.16713268489807998,
        -0.057898064478685625,
        -0.1569376161385122,
        -0.047679611806781125,
        -0.0005305165496289345,
        -0.03745853532663918,
        -0.13654195963278698,
        -0.027234761738730677,
        -0.126341217384273,
        -0.01700821819949155,
        -0.11613843002008777,
        -0.006778832332818818,
        0.0008987732732861947,
        0.0034534677586292115,
        -0.1101898526504494,
        0.013688753482333341,
        -0.08551703498423822,
        0.023927095745017248,
        -0.07530530676586011,
        -0.1743097994243976,
        -0.06509115513824891,
        -0.16411596116176455,
        -0.05589492140577407,
        -0.15392036373118678,
        -0.044655284185540836,
        -0.14372292950205073,
        -0.034433417197379274,
        -0.13352358115610674,
        -0.02420883149768115,
        -0.12332224170087387,
        -0.013981454380023994,
        -0.1131188344829049,
        -0.0037512136088108296,
        -0.1029132832009044,
        0.006481962569488581,
        -0.09270551191869626,
        0.016718145415297467,
        -0.08249544507803339,
        0.026957405685097555,
        -0.07228300751124686,
        -0.17129343410480316,
        -0.06206812445372639,
        -0.16109908337720358,
        -0.051850721556230134,
        -0.15090295047759283,
        -0.041630724897017135,
        -0.14070495786638712,
        -0.03140806099379819,
        -0.13050502832034755,
        -0.021182656815501605,
        -0.12030308494594405,
        -0.010954439793847935,
        -0.11009905119257764,
        -0.0007233378347305644,
        -0.09989285086565444,
        0.009510720670602225,
        -0.0896844081395072,
        0.01974780683456759,
        -0.07947364757015792,
        -0.17847006215290112,
        -0.06926049410791749,
        -0.16827691953909535,
        -0.05904487310981632,
        -0.15808204952995739,
        -0.04882671035186207,
        -0.1478853743712624,
        -0.03860593204111887,
        -0.13768681661563817,
        -0.02838246482760407,
        -0.1274862991360269,
        -0.018156235815997342,
        -0.11728374513900737,
        -0.007927172577159042,
        -0.10707907817797355,
        0.0023047968405478774,
        -0.09687222216616485,
        0.012539743900135231,
        -0.08666310138954053,
        0.022777739565070558,
        -0.07645164051949498,
        -0.1754538993715565,
        -0.0662377646254073,
        -0.16526025370743272,
        -0.05602139918702219,
        -0.155064857607909,
        -0.04580247010665452,
        -0.14486763340815323,
        -0.03558090372121546,
        -0.13466850375418443,
        -0.025356626814053915,
        -0.12446739161629204,
        -0.01512956662660993,
        -0.11426422030231756,
        -0.0048996508698749865,
        -0.10405891347078959,
        0.005333192264344372,
        -0.09385139514390786,
        0.015569034092363833,
        -0.08364158972037174,
        0.02580794542776329,
        -0.0734294219880466,
        -0.17243759013371876,
        -0.06321481713646462,
        -0.16224343459222346,
        -0.05299770076915313,
        -0.15204750560129432,
        -0.04277799891578738,
        -0.14184972558668002,
        -0.03255563804416253,
        -0.13165001728896492,
        -0.022330545071979662,
        -0.1214483037769495,
        -0.01210264737844262,
        -0.11124450846088825,
        -0.0018718728156604768,
        -0.10103855510558091,
        0.008361850280147926,
        -0.09083036784331126,
        0.018598593077651302,
        -0.08061987118662786,
        0.028838426239609298,
        -0.0704069900409621,
        -0.16942113241649587,
        -0.06019164971707835,
        -0.1592264601781548,
        -0.049973775943350944,
        -0.1490299915027333,
        -0.03975329487786411,
        -0.13883164890774358,
        -0.02953013312032886,
        -0.12863135522950747,
        -0.019304217723814122,
        -0.11842903363649532,
        -0.009075476206285949,
        -0.1082246076425215
      ],
      [
        0.0017631743704494228,
        -0.00015556263125702353,
        0.003783381751570484,
        0.000602427565476164,
        0.0022161171274520516,
        -0.00029144369681027903,
        -0.00015754795049502108,
        0.00022685131671032585,
        -0.003182100720854233,
        0.0006457126980521302,
        -0.0034360039588773915,
        0.0009481877549777219,
        -0.0002393970329898136,
        -0.0003800044700689549,
        0.002591556834152681,
        0.0013581026193008635,
        -9.920008891704086e-05,
        -0.0023683868411124914,
        -0.0011111351965774592,
        -0.025565234837896723,
        0.0005680082419182038,
        0.022076392730496584,
        0.0008767741835140515,
        0.0036561808907489635,
        -0.00028637468656634375,
        0.0012755855408669659,
        0.00018013314766677694,
        -0.0012061653657748977,
        0.00013756572256655517,
        -0.0036356008663243327,
        -0.04141884941405409,
        -0.002781094776342131,
        -0.00046430706926050267,
        0.0009352449353320335,
        0.0010276562086263274,
        0.002404060304727506,
        0.0001904573074414846,
        -0.00129256317458852,
        -0.00259831497350334,
        -0.05393400552871072,
        0.00015615362357065162,
        0.0018322165957655287,
        0.003401330095699505,
        -0.0005727409891356969,
        0.0032221332322413913,
        -0.00033561966280577576,
        0.00023171340751084618,
        0.000394625393065563,
        -0.0021559313372589307,
        0.006491092574649952,
        -0.14244022094833012,
        3.558764813597085e-05,
        -0.0018368837580956222,
        -0.0014170578327134039,
        0.0019147396477586706,
        0.0018388622061494269,
        0.001621345584494304,
        -0.045402304452337006,
        -0.0018800514227198769,
        -0.0022382069475407654,
        0.0013462080293556945,
        0.0013425065222899043,
        -0.0007472163393614428,
        0.0037439557820729604,
        0.0003063111010119836,
        0.002532152550653614,
        0.00032836300720983345,
        -0.21022745291962183,
        -0.0003277983803214313,
        -0.002940957996762893,
        0.000646504092003484,
        -0.003597666864412731,
        0.0011180457577793577,
        -0.0006960370619368813,
        -0.0008720226578917424,
        0.002504675725223012,
        0.0016589887567615273,
        0.0004063452459303967,
        -0.0021215736964957446,
        -0.0015047449056848753,
        -0.0014103394490497245,
        0.0010585396262038803,
        0.0023891771988942133,
        0.0007698408203400605,
        0.003742782887700019,
        -0.00041632269897675587,
        0.0016480533810536682,
        0.0004024535298817663,
        -0.0008165446668131347,
        -0.00043919902382355807,
        -0.0034968575633341986,
        -0.0003708277385639307,
        -0.17893175901589609,
        0.0001369709144515165,
        -0.13111987099266903,
        0.0005200594931452846,
        0.0025479853084178624,
        0.0006768950022042643,
        -0.0008841794703120277,
        -0.002583886344516981,
        -0.0002711187636546561,
        -0.00029871363749393127,
        -0.0004029230831670964,
        0.0031822000823394183,
        5.6640871610581995e-05,
        0.0034199746090264912,
        0.00016166681655239746,
        0.0006357097446068577,
        -7.58978066752759e-05,
        -0.001811479963872735,
        0.00011092319775503784,
        -0.003766887220376636,
        0.061396185655018504,
        -0.13130862800966264,
        -0.0012215891451928015,
        0.0015788335698464465,
        0.0016416640723703633,
        0.0019822303150852484,
        -0.0006334891492898142,
        -0.0017579647968853096,
        0.11083593100448494,
        -0.12698508240188572,
        0.121693717287336,
        -0.0010810327284979126,
        0.003654738939149336,
        -0.00041730423367992894,
        0.0028202193601699786,
        0.00033993064185235155,
        -0.00044022025702355853,
        -0.06030079923751313,
        -0.1990181746108609,
        2.5349358317823577e-05,
        -0.00370959855846738,
        0.000939507643871159,
        -0.0011440353358534504,
        -0.0012381810408543677,
        0.0023381827645770465,
        0.0018415924932567032,
        0.0008994640147515268,
        -0.0017941827620015587,
        -0.001767459879982225,
        -0.001768425910408043,
        0.0013572235184642356,
        0.0020169004984673146,
        0.0002599215227765752,
        0.0037828787925080353,
        0.00031493936803431985,
        0.0020020843810335323,
        -0.0003735058250176451,
        -0.00041625738511901064,
        0.00031657041895442195,
        -0.003316828963058776,
        0.0003203019225096427,
        -0.003307641598391698,
        0.000689274184091024,
        5.1490265499423834e-05,
        -3.2375424035729775e-05,
        0.00260266934572425,
        0.001116244757490799,
        -0.00041555787820128187,
        -0.002480510912778056,
        -0.0008058919470495047,
        0.050962224046308714,
        -0.0723328390222967,
        0.06366770940607729,
        -0.05962735441797706,
        0.0763731948438276,
        -0.046921869735917096,
        0.08907868035958443,
        -0.03421638497609186,
        -0.15751144298633868,
        -0.021510900138476584,
        -0.14480595890255427,
        -0.0005414966099435469,
        -0.1321004747411962,
        0.005841177214916738,
        -0.11939499050223976,
        0.016605554841358408,
        -0.10668950618566003,
        0.029311039990382773,
        -0.093984021791432,
        0.05026950733679557,
        -0.08127853731953096,
        0.05665331144245059,
        -0.068573052769932,
        0.06742749590504173,
        -0.05586756814261009,
        0.08013298136587295,
        -0.04316208343754052,
        0.09283846690471811,
        -0.030456598654698425,
        -0.15375165688799253,
        -0.01720207044744762,
        -0.17694173090179072,
        -0.004498219596673787,
        -0.12834068859693692,
        0.007659856160712081,
        -0.11563520433501288,
        0.020365341254893223,
        -0.10292971999545823,
        0.03307082642697124,
        -0.12265175182732196,
        0.05388476172295853,
        -0.09932731819369983,
        0.05848179700491754,
        -0.06481326651076115,
        0.07118728241083545,
        -0.052107781860434924,
        0.08389276789474999,
        -0.039402297132353645,
        -0.1621296685444041,
        -0.026121136428048378,
        -0.14942581874177177,
        -0.013991327442826386,
        -0.1372863866531625,
        -0.0012858424813306693,
        -0.12458090244588195,
        0.011419642558019576,
        -0.1118754181609881,
        0.035002015122521074,
        -0.0991699337984563,
        0.03683061287038317,
        -0.08646444935826154,
        0.049536098143446235,
        -0.07375896484037897,
        0.062241583494463314,
        -0.06105348024478371,
        0.07494706892345933,
        -0.04834799557145091,
        0.09851252932904372,
        -0.03564251082035569,
        -0.1589375687460039,
        -0.022937025991473188,
        -0.14623208467092524,
        -0.010231541084778523,
        -0.13352660051827567,
        0.0024739438997531623,
        -0.12082111628803052,
        0.015179428962146739,
        -0.10811563198016477,
        0.02788491410242712,
        -0.0954101475946536,
        0.04059039932061914,
        -0.08270466313147219,
        0.05329588461674764,
        -0.0699991785905956,
        0.06600136999083756,
        -0.05729369397199899,
        0.07870685544291364,
        -0.04458820927565745,
        0.09141234097300098,
        -0.03188272450154612,
        -0.15517778265023352,
        -0.019177239649640156,
        -0.1424722985522028,
        -0.006471754719914703,
        -0.1297668143765939,
        0.006233730287655187,
        -0.117061330123382,
        0.018939215373094304,
        -0.10435584579254213,
        0.03164470053642762,
        -0.09165036138404949,
        0.04435018577767985,
        -0.07894487689787923,
        0.057055671096875996,
        -0.06623939233400647,
        0.06976115649404079,
        -0.05353390769240629,
        0.08246664196919924,
        -0.040828422973053835,
        -0.16412348059109647,
        -0.028122938175924272,
        -0.15141799654767202,
        -0.015417453300992662,
        -0.13871251242668706,
        -0.0027119683482341793,
        -0.12600702822811657,
        0.009993516682376037,
        -0.11330154395193577,
        0.022699001790862913,
        -0.1005960595981196,
        0.03540448697725119,
        -0.0878905751666434,
        0.04810997224156593,
        -0.07518509065748215,
        0.060815457583831826,
        -0.062479606070610934,
        0.0735209430040738,
        -0.04977412140600506,
        0.08622642850231681,
        -0.03706863666363948,
        -0.16036369450469212,
        -0.024363151843489424,
        -0.14765821043831887,
        -0.01165766694553005,
        -0.13495272629437746,
        0.0010478180302635886,
        -0.12224724207284318,
        0.013753303083916358,
        -0.10954175777369121,
        0.026458788215453107,
        -0.09683627339689657,
        0.03916427342489872,
        -0.0841307889424345,
        0.05186975871227796,
        -0.07142530441028005,
        0.06457524407761592,
        -0.05871981980040836,
        0.07728072952093722,
        -0.0460143351127945,
        0.08998621504226684,
        -0.03330885034741375,
        -0.1566039084114976,
        -0.020603365504241033,
        -0.14389842432217295,
        -0.00789788058325163,
        -0.13119294015527314,
        0.004807604415579356,
        -0.11848745591077295,
        0.0175130894922768,
        -0.1057819715886477,
        0.030218574646865615,
        -0.09307648718887242
      ],
      [
        -0.0024927266452974706,
        0.0009115014346717043,
        0.000737253969102989,
        -0.0011166044439209677,
        0.0036099057650691114,
        -0.0006108586136202749,
        0.002917346365632667,
        0.00033585669100670015,
        -0.0002903074730743144,
        -0.0003419924485477293,
        -0.0025595497060313076,
        -0.0002445358848277321,
        -0.00373790941080275,
        0.0007905517521899291,
        -0.0013031306157838172,
        -0.0013279260825435994,
        0.0022593534538881623,
        0.0018747054768962887,
        0.0010711145247573068,
        -0.3028676602007015,
        -0.0018270495445538524,
        -0.32781444372761187,
        0.0014090257611316717,
        0.00187338302303856,
        2.4459565992172134e-05,
        0.003785580931011248,
        0.0005220407975110969,
        0.0021255430610865825,
        -0.0004249928740087908,
        -0.00026872659261946907,
        0.2674873751425963,
        -0.0032416926166915555,
        0.0005295081163191859,
        -0.003383390443940997,
        0.0008492200204584636,
        -0.00011455696014635156,
        -0.000232866062796324,
        0.002600625047173131,
        0.0012586829039508763,
        0.04352120916034835,
        -0.0024208104292623095,
        0.3710781269218252,
        -0.0008968501445339864,
        0.0004113322560079985,
        0.0028088869384044124,
        0.0008168156119114663,
        0.003624765267721776,
        -5.6577695095252716e-05,
        0.0011712781139575183,
        0.13305450038424335,
        0.16566448876035111,
        0.00035052456462421127,
        -0.003665921691744538,
        -0.0008881287056009907,
        -0.0026956381260887117,
        -0.0006185622997875414,
        0.0010490091112259957,
        -0.07504245973264229,
        0.0023494693074028305,
        5.3394294487283094e-05,
        -0.0013897207982709317,
        -0.002587115410883853,
        0.0004281626798969009,
        0.00028102918497340456,
        -0.0009766718420650862,
        0.003452736009448509,
        -0.000674797877585647,
        -0.012028356236220478,
        -0.000158333495755019,
        0.00012040064263956862,
        0.00022426985740105806,
        -0.0022459091940968032,
        -0.0006129969466361399,
        -0.0037818389372270044,
        0.00021506746905965558,
        -0.001725973954289726,
        -0.0014293552282559135,
        0.001996990204900027,
        0.001866860113488075,
        0.0015111520072149135,
        -0.0012370803863023506,
        -0.0018889077601694023,
        -0.0021714222882449874,
        0.0013905492752091992,
        0.0014595879466761511,
        -0.000604380608246296,
        0.0037596247735449603,
        0.00046608809924216773,
        0.002448584624008341,
        0.0002395450185549476,
        0.00014060669263297543,
        -0.0002643347019327846,
        -0.45609876846682484,
        0.0007184969818082322,
        -0.48120919135093676,
        0.0011047618065077613,
        -0.0005719811320445111,
        -0.0007475163241746055,
        0.002536547148655762,
        0.001587696934306913,
        0.00026865568254767953,
        -0.0021972090491307436,
        -0.0014093679829971068,
        -0.0013051178262963423,
        0.0009409602602341476,
        0.0024844918610007387,
        0.0008474686015706734,
        0.0037236931727416623,
        -0.0005105925994581938,
        0.0015481474221095003,
        0.00048223360871612003,
        -0.0009240093672267844,
        0.48023948645585285,
        0.17687373891336725,
        -0.0005380954591507436,
        -0.0029934457220537336,
        -2.8239666443031185e-05,
        0.0006222991435131517,
        0.0006652214185721222,
        0.002517571355154956,
        0.5327929553341747,
        -0.5669496918593788,
        0.5737728389753889,
        -0.00011946752326832543,
        -0.00017545911880799967,
        -0.0005519187110181292,
        0.003246677777003282,
        -0.00013681104356029895,
        0.003369859630248416,
        0.2777639921128044,
        -0.0008401117450000453,
        0.00017670889230072775,
        -0.00190756595416655,
        -0.00010866119312410728,
        -0.0037766618645643686,
        -0.0004252352024303022,
        -0.002121807760904142,
        -0.0012979277040789466,
        0.0016754452122296989,
        0.0017099459707809262,
        0.0018909538763078387,
        -0.0007675817405316152,
        -0.0018047427763510364,
        -0.0023910766346550805,
        0.0011544811374475151,
        0.0010232074075612236,
        -0.0010231938947173115,
        0.0036840284030970356,
        -0.0002306092274918204,
        0.00274463208132878,
        0.00034147139155747615,
        0.0005527039745652741,
        -0.0003414713915574764,
        -0.0027446320813287756,
        0.0002306092274918204,
        -0.0036840284030970356,
        0.0010231938947173125,
        -0.0010232074075612236,
        -0.0011544811374475151,
        0.002391076634655081,
        0.001804742776351035,
        0.0007675817405316152,
        0.11771776437929253,
        -0.005529156614906031,
        0.13041828784153628,
        0.007171367696187691,
        0.14311881121658476,
        0.019871891919581493,
        0.15581933450449026,
        0.0325724160553274,
        0.16851985770530467,
        0.04527294010347745,
        -0.07797398574228244,
        0.11968722757736837,
        -0.06527346092994697,
        0.1445783595156777,
        -0.05257293620560807,
        0.0833745117228727,
        -0.03987241156921374,
        0.09607503542115951,
        -0.0271718870207119,
        0.17047914146671808,
        -0.014471362560050596,
        0.19537009307535066,
        -0.001770838187177831,
        0.1341766059922135,
        0.01092968609795842,
        0.14687712934146938,
        0.023630210295410174,
        0.15957765260359755,
        0.036330734405229485,
        0.17227817577865007,
        -0.009521422257973776,
        -0.40305562221682417,
        0.0031767076232269466,
        -0.06151514237990648,
        0.07443230620941264,
        -0.048814617681597394,
        0.08713282996922211,
        -0.036114093071217435,
        0.09983335364165925,
        -0.21405977803217907,
        0.2364323709738168,
        -0.19282955403742957,
        0.12523440072462444,
        0.001987480232867489,
        0.13793492413525654,
        0.014688004492050863,
        0.15063544745872437,
        0.027388528663565167,
        0.10476174937043752,
        0.03434788060696212,
        0.1174598799271196,
        0.052789576743794475,
        -0.07045734859781987,
        0.06549010065261356,
        -0.05775682383757021,
        0.07819062447397152,
        -0.045056299165286424,
        0.12568310847860042,
        -0.032355774580916354,
        0.10359167185451268,
        -0.01965525008440807,
        0.11629219541379963,
        -0.006954725675709547,
        0.12899271888583383,
        0.005745798645231262,
        0.14169324227066685,
        0.018446322878466356,
        0.18916603400073453,
        0.03114684702404769,
        0.16709428877893853,
        0.043847371082027346,
        -0.07939955485936627,
        0.05654789505245737,
        -0.06669903003715053,
        0.0692484189353897,
        -0.053998505302936976,
        0.08194894273087638,
        -0.041297980656673894,
        0.09464946643896939,
        -0.028597456098309142,
        0.10734999005972086,
        -0.01589693162779083,
        0.12005051359318276,
        -0.003196407245066841,
        0.13275103703940713,
        0.009504117049914818,
        0.14545156039844576,
        0.022204641257206156,
        0.15815208367035116,
        0.034905165376859136,
        0.17085260685517475,
        0.047605689408925844,
        -0.07564123628035614,
        0.0603062133534583,
        -0.06294071148418727,
        0.07300673721050843,
        -0.05024018677600533,
        0.08570726098012826,
        -0.03753966215575835,
        0.09840778466236992,
        -0.024839137623394396,
        0.11110830825728553,
        -0.012138613178861462,
        0.12380883176492646,
        0.0005619111778925388,
        0.13650935518534574,
        0.013262435446919614,
        0.14920987851859455,
        0.02596295962827173,
        0.16191040176472551,
        0.038663483722000916,
        0.1746109249237902,
        0.051364007728159064,
        -0.07188291770905542,
        0.0640645316467985,
        -0.059182392938928845,
        0.0767650554779711,
        -0.04648186825677393,
        0.08946557922172868,
        -0.033781343662538564,
        0.1021661028781235,
        -0.02108081915617086,
        0.1148666264472074,
        -0.008380294737618733,
        0.1275671499290326,
        0.004320229593169852,
        0.140267673323651,
        0.017020753836246856,
        0.15296819663111474,
        0.029721277991664297,
        0.16566871985147566,
        0.042421802059474184,
        -0.08082512397755963,
        0.05512232603972862,
        -0.06812459914546268,
        0.06782284993247951,
        -0.055424074401373945,
        0.08052337373777892,
        -0.042723549745241444,
        0.0932238974556789,
        -0.03002302517701319,
        0.10592442108623142,
        -0.017322500696637103,
        0.11862494462948851,
        -0.004621976304061247,
        0.1313254680855023,
        0.008078548000766426,
        0.1440259914543245,
        0.020779072217897945,
        0.15672651473600743,
        0.03347959634738533,
        0.1694270379306031,
        0.04618012038928051,
        -0.07706680539562484,
        0.058880644343635616,
        -0.06436628058957661,
        0.07158116821050257,
        -0.0516657558715211,
        0.08428169198993352,
        -0.03896523124140654,
        0.09698221568198034,
        -0.026264706699180778
      ],
      [
        0.0007192170733003193,
        -0.0008436314759600012,
        -0.002578183629717568,
        -0.000321407841165544,
        -0.00033960364452189544,
        -0.00035119422497673254,
        0.0031599344522359285,
        0.00012136154386163862,
        0.0034360212283529703,
        0.00024251115664688865,
        0.000672037281530657,
        -0.0001570694204104233,
        -0.0017791156973699803,
        0.0001814383766408882,
        -0.003762844146282763,
        -0.0006190255505633337,
        -0.0022578201955377047,
        -0.0011924711198188216,
        0.0015458605026754059,
        -0.021968666927542537,
        0.0020113969135996056,
        -0.024097621501119146,
        -0.0017402304007050713,
        -0.002452976458961388,
        0.0010231706440643697,
        0.0008604067521271898,
        -0.0010944036275991858,
        0.003644149601498864,
        -0.0004725917681282258,
        0.0028448980249986267,
        -0.06319070848631564,
        -0.0004027304042495876,
        -0.0003523342720244823,
        -0.002640327233193602,
        -4.401681894468997e-05,
        -0.0037172955542082694,
        0.0009061187750179288,
        -0.001184036263317707,
        -0.001263037330475436,
        -0.14781498441526758,
        0.0018516098582433012,
        -0.12246563104182061,
        -0.0017607452259748425,
        -0.0017842004145581898,
        -0.0017985751868858047,
        0.001373115885664319,
        0.0019814022957365274,
        0.00020221357012752204,
        0.0037841550836903554,
        -0.08421324123843335,
        0.03342945432880367,
        -0.0004123596881558715,
        -0.0003794580044112915,
        0.00035810183909832256,
        -0.003298514755295874,
        0.00037724465007698513,
        -0.003327174780179159,
        -0.04516565159509072,
        1.0044296665071158e-05,
        -8.280775745097408e-05,
        0.002603243078832673,
        0.0011528496732794258,
        -0.00037096996810270615,
        -0.00246668484549745,
        -0.0008516073421114467,
        -0.0007803603588144973,
        0.00024900194281635233,
        0.018102567861573566,
        0.0007195125529583385,
        0.003590098420518152,
        0.00018586200930539133,
        0.0010659397874752687,
        -0.0004201672640852856,
        -0.0014129333884346576,
        0.00048589840444451424,
        -0.0036929260642802365,
        -0.0008960999265788677,
        -0.002607123134225637,
        -0.0007640656845592196,
        0.0011604702327437624,
        0.0012678074580965868,
        0.0022884337359601013,
        -8.448579108855298e-05,
        -0.0014797276305432373,
        -0.0025695850971940437,
        0.0005692486331389569,
        0.0004058809087116739,
        -0.0010474211538346856,
        0.003500500862582647,
        -0.0007291856767810177,
        0.003098448337070861,
        5.772641062891742e-05,
        0.052468775577416533,
        8.319630656627194e-07,
        -0.1778103987064209,
        -0.0005954149505067241,
        -0.0037747700360219283,
        0.0003892296744808918,
        -0.0016130494833612378,
        -0.0014241187944963756,
        0.002074834024519168,
        0.0018837001245181767,
        0.001396453660098502,
        -0.0013572753306149926,
        -0.0018868422251018986,
        -0.0020997676126035918,
        0.001418537271532541,
        0.0015749838882329792,
        -0.0004451976527056296,
        0.003771597854662696,
        0.0005737035798682066,
        0.002363008493512851,
        -0.060385576977493235,
        -0.18308262380444,
        -0.00012208962971431702,
        -0.003076802123233919,
        0.0007356681111841946,
        -0.0035156091037186104,
        0.0010658505099064239,
        -0.0004474595033117163,
        -0.03799133755589688,
        -0.16157266568411122,
        -0.026437500719257753,
        0.00013053265917250612,
        -0.0022666735886632287,
        -0.001304675196278489,
        -0.0011970736909625158,
        0.0008102613964664003,
        0.0025769528842896697,
        -0.08221306055674497,
        0.029335911512162638,
        -0.0005092679344320311,
        0.001446943699381399,
        0.0004716636047150124,
        -0.0010306103719839737,
        -0.00025816558364392657,
        -0.0035778291279135927,
        -0.000679335495021933,
        -0.002916514889839762,
        -0.00019407448449617498,
        0.0007411225227504365,
        0.0008058919470495011,
        0.002480510912778056,
        0.00041555787820128187,
        -0.0011162447574908057,
        -0.00260266934572425,
        3.2375424035729775e-05,
        -5.1490265499423834e-05,
        -0.0006892741840910185,
        0.003307641598391698,
        -0.0003203019225096427,
        0.003316828963058776,
        -0.00031657041895442195,
        0.00041625738511901064,
        0.00037350582501763954,
        -0.002002084381033534,
        -0.00031493936803431985,
        -0.0037828787925080383,
        -0.0002599215227765693,
        -0.0020169004984673146,
        -0.0013572235184642356,
        0.0017684259104080425,
        -0.014361718997426989,
        -0.13771032831903013,
        -0.0016507158057006356,
        -0.12499932574076275,
        0.011060287449282467,
        -0.11228832309931149,
        0.023771290767529832,
        -0.09957732039466877,
        0.036482294149048904,
        -0.08686631762682714,
        0.04919329759384727,
        -0.07282779102878825,
        -0.1975039212325973,
        -0.06263949265585511,
        -0.1847929189514519,
        -0.04873330894403337,
        -0.1720819166071576,
        -0.036022305923320855,
        -0.1593709141997073,
        -0.02199154218570617,
        -0.14665991172909335,
        -0.01180257488673552,
        -0.13394890919530822,
        0.002110703518265449,
        -0.12123790659834435,
        0.014821706791968804,
        -0.10852690393819446,
        0.0275327101289387,
        -0.09581590121485077,
        0.040243713529182476,
        -0.0843885829097285,
        0.0476361692593444,
        -0.07167895186332239,
        -0.19374250219679565,
        -0.05768289266558273,
        -0.18103149989696404,
        -0.044971889689389366,
        -0.16832049753398176,
        -0.032260886649964855,
        -0.1575231753710216,
        -0.01647888068288314,
        -0.14592821182947044,
        -0.0068388803813921595,
        -0.1301874900660539,
        0.005872122847770973,
        -0.11747648745039303,
        0.018583126140195336,
        -0.1047654847715437,
        0.029998099400244442,
        -0.08716209575226828,
        0.04270773116988701,
        -0.07934347922424971,
        0.05671613639711037,
        -0.06663247635579017,
        -0.18998108315546464,
        -0.0539214734241122,
        -0.17727008083694626,
        -0.03846491903108804,
        -0.1645590784552749,
        -0.02849946737107106,
        -0.15184807601044295,
        -0.015788464249692925,
        -0.13913707350244287,
        -0.003077461065066328,
        -0.12642607093126712,
        0.009633542182816144,
        -0.11371506829690839,
        0.02507865392666792,
        -0.10100406559935894,
        0.03505554886837889,
        -0.08829306283861142,
        0.0477665523060741,
        -0.07558206001465828,
        0.060477555807055196,
        -0.06287105712749202,
        -0.1862196641086041,
        -0.050160054177105125,
        -0.1735086617713984,
        -0.03744905116349011,
        -0.16079765937103735,
        -0.024738048086639482,
        -0.1480866569075136,
        -0.012027044946545737,
        -0.13537565438081944,
        0.0006839582567986576,
        -0.12266465179094746,
        0.013394961523401151,
        -0.10995364913789016,
        0.026105964853269267,
        -0.0972426464216401,
        0.03881696824641054,
        -0.08453164364218971,
        0.05152797170283242,
        -0.07182064079953136,
        -0.19516924734895752,
        -0.059109637893657765,
        -0.18245824505621389,
        -0.0463986349245613,
        -0.16974724270032027,
        -0.033687631892234504,
        -0.15703624028126884,
        -0.02097662879666984,
        -0.14432523779905257,
        -0.008265625637859838,
        -0.1316142352536637,
        0.00444537758420298,
        -0.11890323264509484,
        0.017156380869526207,
        -0.10619222997333842,
        0.02986738421811722,
        -0.09348122723838699,
        0.04257838762998364,
        -0.08077022444023295,
        0.055289391105132805,
        -0.06805922157886889,
        -0.19140782830972394,
        -0.05534821865428724,
        -0.17869682599829362,
        -0.04263721566648054,
        -0.16598582362371134,
        -0.02992621261544128,
        -0.1532748211859691,
        -0.01721520950116195,
        -0.1405638186850597,
        -0.004504206323635045,
        -0.1278528161209755,
        0.008206796917146889,
        -0.11514181349370907,
        0.02091780022119142,
        -0.10243081080325281,
        0.03362880358850605,
        -0.08971980804959934,
        0.046339807019098185,
        -0.07700880523274113,
        0.05905081051297543,
        -0.06429780235267057,
        -0.18764640926496065,
        -0.05158679940938026,
        -0.17493540693484347,
        -0.03887579640286266,
        -0.1622244045415716,
        -0.026164793333110305,
        -0.149513402085138,
        -0.013453790200115674,
        -0.13680239956553475,
        -0.0007427870038711586,
        -0.12409139698275458,
        0.011968216255630567,
        -0.11138039433678983,
        0.024679219578397076,
        -0.09866939162763312,
        0.03739022296443591,
        -0.08595838885527705,
        0.050101226413754474,
        -0.0732473860197139,
        -0.19659599250032386,
        -0.06053638312093627,
        -0.183884990214668,
        -0.047825380158936566,
        -0.17117398786586288,
        -0.03511437713370747,
        -0.1584629854539011
      ],
      [
        -0.0007899795454829824,
        0.002526590982903069,
        0.0016124134195818446,
        0.0003146258766839158,
        -0.0021726757678105983,
        -0.0014422222088176597,
        -0.0013405162990490858,
        0.0009816873085342435,
        0.0024530327081041907,
        0.0008253002842480935,
        0.003730438588535678,
        -0.0004889621724096039,
        0.0015815972249313853,
        0.0004650935198517084,
        -0.0008882802564956689,
        -0.00043934244030441056,
        -0.0035252357555477128,
        -0.0004848730479453049,
        -0.003018354391545951,
        -0.05201539575301171,
        0.0005823483593693613,
        0.1284849015266299,
        0.0025284487101964537,
        0.0005911060163546742,
        -0.0009637592017758116,
        -0.002593081395583667,
        -0.00017010239566890345,
        -0.00021663360244683725,
        -0.0005033980687154558,
        0.0032255734759951225,
        -0.098052181215897,
        0.0033868915907450327,
        -1.579048088079727e-05,
        0.0005628319541902383,
        9.420487704931709e-05,
        -0.001875707822715199,
        -3.538272806638304e-05,
        -0.003773797345297269,
        -0.00047698026764354253,
        -0.18272660141134764,
        -0.0012743454068573248,
        -0.15564269291893673,
        0.0016883693329972137,
        0.00192200097574569,
        -0.000723107555601834,
        -0.0017902353283945369,
        -0.0024074878274811425,
        0.0011236770481258262,
        0.000982676636100228,
        -0.12035400638825372,
        0.010570938155019995,
        -0.00029575278373004715,
        0.002770083777341014,
        0.0003399817108571541,
        -0.0005152093452204698,
        -0.0003439360352634891,
        -0.002718927944016145,
        -0.0570656445373847,
        -0.0036929650575627825,
        0.000998108160844622,
        -0.0010636148635222013,
        -0.0011838616903802304,
        0.0023740512714980717,
        0.0018181467304008922,
        0.0008118101635097925,
        -0.001859296064545247,
        -0.0017303255110201541,
        -0.00825484917875207,
        0.0013196142323496423,
        0.0020871076054330864,
        0.00037165981188454385,
        0.0037791310584751846,
        0.0001804181095726087,
        0.0019392499120719103,
        -0.00025293565207817496,
        -0.0004896743477376037,
        0.00018630805737176906,
        -0.0033525036922865794,
        0.00019965458817222355,
        -0.0032673916073435285,
        0.000599145379769576,
        0.0001342052909653229,
        6.88109317128708e-05,
        0.002599337976245701,
        0.001041172091005587,
        -0.0005039357943306267,
        -0.0025059553470430894,
        -0.0007126620670103221,
        -0.000662083813783704,
        8.359022633574553e-05,
        0.0029681680200487177,
        0.0005884106447595562,
        0.021108510606327843,
        0.000374811098567598,
        0.19692259746356683,
        -0.000490593594902462,
        -0.0015145534251266245,
        0.0005214725600993968,
        -0.003716567625180265,
        -0.0008657445678183468,
        -0.0025156338976916933,
        -0.0008987732732861947,
        0.0012694057370902546,
        0.0013754779566303753,
        0.002221056501728073,
        -0.00022263718932919872,
        -0.0015620516868731233,
        -0.002545829227132982,
        0.0007041600635356698,
        0.0005305165496289345,
        -0.001094577722919629,
        0.0035446008033270643,
        -0.10920180916179521,
        0.020221584126340373,
        0.00022619291958325097,
        -0.00010323238913408344,
        -0.00019169498578526295,
        -0.0024202787866990103,
        -0.0005085538173109879,
        -0.00376402579537523,
        -0.05734794422049955,
        -0.16556546061728414,
        -0.046133970393905856,
        0.0021480690025326363,
        0.0018894411024575496,
        0.0012775756409119854,
        -0.001473404184864719,
        -0.0018737116670705463,
        -0.002023437863773476,
        -0.11455470302971486,
        0.0004217781948949974,
        -0.00027397739584011417,
        0.0037798898793507374,
        0.0006152870246155044,
        0.002275497080466511,
        -0.0001511488724733664,
        -8.321357619629527e-05,
        8.558582173143463e-05,
        -0.0031408659359903057,
        0.0006985632056021758,
        -0.0034690634601984923,
        0.0010027584028235606,
        -0.00032265865463505534,
        -0.0004757907425592541,
        0.0025819704613254924,
        0.0014205442936509882,
        -7.497819765574622e-06,
        -0.0023298355367561236,
        -0.0011912597070800777,
        -0.0010864296961376665,
        0.0006681419353809579,
        0.0026664689031699524,
        0.0008951256446160952,
        0.003675293979800348,
        -0.0004058562375835386,
        0.0013445153901736181,
        -4.273795642222982e-05,
        -0.001136276320998037,
        -2.5939592406792997e-05,
        -0.0036135684049672335,
        -0.000788395994220008,
        -0.0028363277144011715,
        -0.05176012545310061,
        -0.1742417430487138,
        -0.03913844049746422,
        -0.16162010353111178,
        -0.02651675083324567,
        -0.14899845935248573,
        -0.013895056455551369,
        -0.13637681050792874,
        -0.0012733573594889043,
        -0.12375515699253573,
        0.011348346459832468,
        -0.11074397606858684,
        0.023970055007302444,
        -0.09856837339741742,
        0.0365917682878091,
        -0.08589016837230698,
        -0.2083716633380433,
        -0.07326849612454298,
        -0.19575003639964725,
        -0.060456404568336494,
        -0.1831284048135018,
        -0.04804853887580064,
        -0.17050676857469668,
        -0.03540345118960741,
        -0.15788512767832344,
        -0.022781760131094456,
        -0.1452634821194736,
        -0.010160064357657931,
        -0.1326418318932416,
        0.0024616361355941237,
        -0.11997358236328996,
        0.014756104014448535,
        -0.10735738710164235,
        0.027705051301105486,
        -0.09477685316120765,
        -0.21725831625400902,
        -0.08215518421640962,
        -0.20463669258506118,
        -0.06953351057971775,
        -0.18904215875488706,
        -0.05688302460204413,
        -0.17836215756271695,
        -0.04429014921106114,
        -0.16677179369282732,
        -0.031668461469304014,
        -0.15415015141725258,
        -0.019046769016068336,
        -0.14152850447774987,
        -0.006427637318947604,
        -0.1272983754462863,
        0.00618860495109741,
        -0.11628519658733756,
        0.01881833666143158,
        -0.1036635356266202,
        0.031440048009496194,
        -0.09104186998235919,
        -0.21352334646815638,
        -0.0784032522178767,
        -0.20090172142538926,
        -0.0657985246236053,
        -0.18828009173687754,
        -0.05317684489931543,
        -0.17565845739771033,
        -0.0405551604718879,
        -0.16303681840297812,
        -0.027933471336427457,
        -0.15041517474777272,
        -0.015311019480552685,
        -0.137793526427187,
        -0.0026900789218345105,
        -0.12517187343631594,
        0.009931624367081535,
        -0.11255021577025523,
        0.02255333238359736,
        -0.09992855342410181,
        0.03517504513260125,
        -0.08730688639295454,
        -0.2097883762759169,
        -0.07468521467191308,
        -0.1971667498589003,
        -0.06206353825607872,
        -0.1845451187946857,
        -0.04944185714055404,
        -0.1719234830783627,
        -0.036820171320443004,
        -0.159301842705022,
        -0.02419848079085082,
        -0.14668019766975612,
        -0.011576785546884166,
        -0.13405854796765818,
        0.0010449144163490118,
        -0.12143689359382345,
        0.013666619103739282,
        -0.10881523454334799,
        0.02628832852017609,
        -0.09619357081132947,
        0.0389100426705473,
        -0.08357190239286669,
        -0.20605340567716338,
        -0.07095022928306009,
        -0.193431777885467,
        -0.058328551477011215,
        -0.18081014544511956,
        -0.04570686896982297,
        -0.16818850835121082,
        -0.03308518175659983,
        -0.15556686659883215,
        -0.020463489832447352,
        -0.1429452201830759,
        -0.007841793192472616,
        -0.13032356909903625,
        0.0047799081682160125,
        -0.11770191334180834,
        0.017401614254508768,
        -0.1050802529064889,
        0.030023325071294515,
        -0.09245858778817602,
        -0.2149400591933805,
        -0.0798369179819688,
        -0.2023184346717679,
        -0.067215243482968,
        -0.18969680550496215,
        -0.05459356428627575,
        -0.17707517168805179,
        -0.041971880386995314,
        -0.16445353321612743,
        -0.029350191780231447,
        -0.15183189008428097,
        -0.016728498461090247,
        -0.13921024228760492,
        -0.004106800424679063,
        -0.1265885898211939,
        0.008514902333893223,
        -0.11396693268014353,
        0.0211366098195165,
        -0.10134527085955099,
        0.03375832203707929,
        -0.08872360435451447,
        -0.21120508915530278,
        -0.07610193316013382,
        -0.19858346325960397,
        -0.06348025727151001,
        -0.18596183271725816,
        -0.0508585766837456,
        -0.17334019752335528,
        -0.038236891391944285,
        -0.16071855767298554,
        -0.02561520139121116,
        -0.1480969131612415,
        -0.012993506676652715,
        -0.13547526398321602,
        -0.0003718072433768885,
        -0.12285361013400427,
        0.01224989691350729,
        -0.11023195160870218,
        0.024871605798889196,
        -0.0976102884024071,
        0.03749331941765696,
        -0.08498862051021805,
        -0.2074701187107591,
        -0.07236694792723482,
        -0.1948484914405438
      ],
      [
        0.0003320950440331878,
        -0.0016509064537387824,
        -0.0014277929724059457,
        0.0020493882996474038,
        0.0018793242721187162,
        0.0014351673887022147,
        -0.0013176450211458842,
        -0.0018887543636176862,
        -0.002124181703024708,
        0.0014110673501357175,
        0.0015367148940481441,
        -0.0004998228787895004,
        0.0037680166388793968,
        0.0005446000666052549,
        0.0023917525095096823,
        0.0001348663073827518,
        6.588323064977823e-05,
        -0.00017864364836180845,
